digraph Tree {
node [shape=box] ;
0 [label="duration <= 503.5\ngini = 0.206\nsamples = 31647\nvalue = [27949, 3698]\nclass = No"] ;
1 [label="poutcome_success <= 0.5\ngini = 0.139\nsamples = 27935\nvalue = [25828, 2107]\nclass = No"] ;
0 -> 1 [labeldistance=2.5, labelangle=45, headlabel="True"] ;
2 [label="month_mar <= 0.5\ngini = 0.108\nsamples = 27033\nvalue = [25478, 1555]\nclass = No"] ;
1 -> 2 ;
3 [label="duration <= 205.5\ngini = 0.101\nsamples = 26771\nvalue = [25341, 1430]\nclass = No"] ;
2 -> 3 ;
4 [label="gini = 0.048\nsamples = 17257\nvalue = [16834, 423]\nclass = No"] ;
3 -> 4 ;
5 [label="gini = 0.189\nsamples = 9514\nvalue = [8507, 1007]\nclass = No"] ;
3 -> 5 ;
6 [label="duration <= 94.5\ngini = 0.499\nsamples = 262\nvalue = [137, 125]\nclass = No"] ;
2 -> 6 ;
7 [label="gini = 0.183\nsamples = 49\nvalue = [44, 5]\nclass = No"] ;
6 -> 7 ;
8 [label="gini = 0.492\nsamples = 213\nvalue = [93, 120]\nclass = Yes"] ;
6 -> 8 ;
9 [label="duration <= 162.5\ngini = 0.475\nsamples = 902\nvalue = [350, 552]\nclass = Yes"] ;
1 -> 9 ;
10 [label="duration <= 80.0\ngini = 0.439\nsamples = 258\nvalue = [174, 84]\nclass = No"] ;
9 -> 10 ;
11 [label="gini = 0.147\nsamples = 50\nvalue = [46, 4]\nclass = No"] ;
10 -> 11 ;
12 [label="gini = 0.473\nsamples = 208\nvalue = [128, 80]\nclass = No"] ;
10 -> 12 ;
13 [label="housing_yes <= 0.5\ngini = 0.397\nsamples = 644\nvalue = [176, 468]\nclass = Yes"] ;
9 -> 13 ;
14 [label="gini = 0.343\nsamples = 459\nvalue = [101, 358]\nclass = Yes"] ;
13 -> 14 ;
15 [label="gini = 0.482\nsamples = 185\nvalue = [75, 110]\nclass = Yes"] ;
13 -> 15 ;
16 [label="duration <= 826.5\ngini = 0.49\nsamples = 3712\nvalue = [2121, 1591]\nclass = No"] ;
0 -> 16 [labeldistance=2.5, labelangle=-45, headlabel="False"] ;
17 [label="poutcome_success <= 0.5\ngini = 0.454\nsamples = 2468\nvalue = [1608, 860]\nclass = No"] ;
16 -> 17 ;
18 [label="duration <= 636.5\ngini = 0.439\nsamples = 2353\nvalue = [1586, 767]\nclass = No"] ;
17 -> 18 ;
19 [label="gini = 0.389\nsamples = 1328\nvalue = [977, 351]\nclass = No"] ;
18 -> 19 ;
20 [label="gini = 0.482\nsamples = 1025\nvalue = [609, 416]\nclass = No"] ;
18 -> 20 ;
21 [label="balance <= 13140.0\ngini = 0.309\nsamples = 115\nvalue = [22, 93]\nclass = Yes"] ;
17 -> 21 ;
22 [label="gini = 0.291\nsamples = 113\nvalue = [20, 93]\nclass = Yes"] ;
21 -> 22 ;
23 [label="gini = 0.0\nsamples = 2\nvalue = [2, 0]\nclass = No"] ;
21 -> 23 ;
24 [label="contact_unknown <= 0.5\ngini = 0.485\nsamples = 1244\nvalue = [513, 731]\nclass = Yes"] ;
16 -> 24 ;
25 [label="poutcome_success <= 0.5\ngini = 0.47\nsamples = 921\nvalue = [347, 574]\nclass = Yes"] ;
24 -> 25 ;
26 [label="gini = 0.475\nsamples = 870\nvalue = [338, 532]\nclass = Yes"] ;
25 -> 26 ;
27 [label="gini = 0.291\nsamples = 51\nvalue = [9, 42]\nclass = Yes"] ;
25 -> 27 ;
28 [label="day <= 29.5\ngini = 0.5\nsamples = 323\nvalue = [166, 157]\nclass = No"] ;
24 -> 28 ;
29 [label="gini = 0.498\nsamples = 311\nvalue = [165, 146]\nclass = No"] ;
28 -> 29 ;
30 [label="gini = 0.153\nsamples = 12\nvalue = [1, 11]\nclass = Yes"] ;
28 -> 30 ;
}